-247.78158727 -130.629152952 23.0182583367 16.9216368544 -97.2888485861 -55.1989876931 -180.492465313 4.94513129277 -144.963092327 -12.6521683331 -17.5397793821 64.9803663769 69.3133898439 -445.602079018 -147.397176471 95.5493305542 126.812908341 -153.763662253 -32.2821535401 162.744038871 163.454056109 -188.894209512 -190.61474133 -156.004550049 -15.7427027762 -82.1633556297 -27.4257690536 23.5814681108 -154.061408116 44.3843293005 -42.7425593741 -45.7236669213 37.245597156 -217.654193327 69.6081716565 7.7135316463 234.293350026 -132.413356879 168.460456307 -18.7426163264 198.68866025 -81.5830599823 -50.2653532569 207.176484861 -89.9435954868 28.8546353649 2.90289463113 190.350194873 60.3079007412 -209.332208956 23.4325849978 38.5692465968 -62.8542543115 25.4824667312 22.287736648 -102.614575319 313.210100488 -168.914041253 -17.8944815023 -177.046815849 257.238540854 -174.329587268 4.69026227795 -132.975515188 -30.9032613129 -16.1279977257 50.6637826081 244.330496595 -62.6983146768 76.687686886 -4.58254650542 69.1168959218 111.905759366 -121.920663249 37.7175825119 -23.1063099471 64.3948528981 -8.32668636666 -108.020201797 -93.0567329318 -193.393797651 -175.319033302 -146.766423815 286.785810261 61.0850448848 137.371869586 153.116320201 -64.1323570945 -97.5456173743 -302.943426818 -157.71891777 -7.08305838609 148.95260042 -15.7152015345 -151.807503285 89.7738404841 5.53977112786 53.9930725664 -231.256135376 7.90247208616 49.2500177506 -169.089338676 31.4554949702 369.105406888 32.6153048965 -122.003555107 133.445134855 116.695883483 159.169881255 241.75334934 -194.907871185 -41.8862382812 -164.76591014 50.5868739294 23.5493976833 -100.522887594 44.7174928084 28.4262538342 15.3077855084 55.7232515792 52.0988194386 74.9819054293 -326.793377007 31.3212726422 154.3915104 -129.185086796 -39.2629587976 -58.9898764272 45.4069841782 118.012039804 -128.571595508 -60.4424485128 -91.9640259439 -104.894130713 85.5612788282 7.09246150308 -64.1589536798 -5.94600144889 53.6483620597 125.132560193 31.6877518507 155.136944512 -190.442143335 113.476258392 -144.566608067 7.44702553212 -69.6140104267 -272.990675065 237.052385492 38.6475062161 181.913886054 -39.4896076288 -89.5695426639 -222.528686678 -11.5369356427 187.385113337 72.3879575572 92.3439660786 44.6565243327 175.025117643 31.6445209819 40.8470043859 -147.26821627 11.066816008 90.855743267 -153.18462506 132.872228125 20.6238291958 -39.346723488 174.829552921 199.307495254 -62.5695732425 -197.680756403 174.105491844 -144.60419081 -117.488988189 -8.33511916575 -25.5297813931 136.360976374 164.266127134 -192.145241421 -98.9135762211 1.62538183262 -111.260291975 225.374363518 -177.641950982 4.38565285859 -33.1771067126 -245.002740604 -198.680264558 -224.94116277 -240.505310725 43.1907750792 218.148899999 -41.5227701021 -28.7674717983 -232.944257546 134.452662766 296.101976238 49.3743442278 53.7895049791 102.128818329 -208.223557328 228.650018232 -269.536789629 20.6764698013 -80.6226632545 160.591957015 28.5044274075 15.5209794491 1.01724558516 -14.9316309936 -44.5303995988 -249.250298538 -118.571449762 -167.675271035 232.747608778 -150.133000696 140.231119373 19.7860456981 125.974888638 92.6072439201 -62.5130084827 65.3208215723 216.854101514 -6.29932199454 -23.5073565754 -216.133198897 -169.640591872 310.659802236 126.230265505 -5.56447222362 -84.639140307 132.16938118 77.9703848674 68.8374786436 -170.148549323 0.778117889523 143.529580712 41.3219831029 123.65832457 6.88211246119 44.4035401298 80.0216635882 -152.913224454 -79.024861841 37.873816622 -36.3737142673 -106.79515397 154.8457822 272.32964905 119.103868832 -243.458700784 62.1985036399 -204.443208538 -160.697522145 74.0476659974 -78.1571426249 -189.574209996 23.5383211893 -148.609346585 90.2496044452 -156.623771613 0.562615806675 106.745131663 -149.436522952 -23.8553862406 136.66956329 288.136742956 -87.2673227467 -7.61061114713 -144.805924217 63.2006137532 -105.068502908 -261.610299947 -152.135064911 81.0516186904 108.382798246 -10.4197618397 -38.1417555441 -155.76228627 154.675720602 -29.7737502653 65.5824086016 -260.309519466 66.0750465867 -170.93410404 -10.0985966858 62.3003500636 15.202957479 261.191370423 51.734879749 28.0441000179 -269.831279012 -127.122798217 -53.1238621634 -61.8496381937 329.254320151 -84.8331108348 68.4826282351 208.867083816 -167.969448715 57.7818987424 -54.4976852562 11.703242145 -186.584853357 -262.772924535 -147.253939744 108.693183892 120.538647391 -8.8820483777 60.4640225831 -88.9807357328 -113.241445712 -149.515379765 -147.882036419 80.495700814 -83.5078512744 79.9790741832 -39.4766975631 133.009880356 103.261431568 -112.763684286 55.5693602456 -59.0105951489 195.090902015 -47.0313353351 -151.122304607 -116.013420395 74.9269425604 142.004239304 -93.5197264103 -82.7189950684 66.8168899228 98.8533708347 26.3062042776 162.334220457 33.7777435936 91.9060569737 -370.127797579 -110.437543766 -92.7192947145 -58.1514680737 103.118922417 -74.045818585 70.7582039994 -37.2972555522 -93.1965661226 229.207571002 19.0379154719 132.299806948 -7.5832849133 106.006640537 107.256645929 109.088723876 126.529031397 -54.063122925 -86.1670041525 46.700371751 11.7031013704 215.877069105 10.6918208087 -8.64305828608 -18.6268266134 -81.2523707356 -64.7901521706 -98.5149169414 -214.64176747 195.591617852 -62.6168490127 -273.213159735 100.540005362 40.1832011435 1.18557253046 -47.2759370572 -66.0056295646 5.31890130716 0.980960691819 26.8838662219 -131.022692774 55.8600512306 -7.45025339895 -62.1936040655 -11.6479156318 6.37646714324 138.938104601 135.768631296 238.551338253 -53.8950855256 -5.04780936179 -133.099178077 128.882079566 115.968851257 -76.4423266471 -35.2193168619 212.410342695 172.613286637 80.3774047437 137.152451399 57.4396130226 
